digraph Tree {
node [shape=box, style="filled", color="black", fontname="helvetica"] ;
edge [fontname="helvetica"] ;
0 [label="ABDOMEN <= 91.35\nsquared_error = 79.271\nsamples = 110\nvalue = 18.057", fillcolor="#f4c8a9"] ;
1 [label="ABDOMEN <= 85.45\nsquared_error = 32.381\nsamples = 61\nvalue = 12.025", fillcolor="#f9e1d0"] ;
0 -> 1 [labeldistance=2.5, labelangle=45, headlabel="True"] ;
2 [label="THIGH <= 50.5\nsquared_error = 20.139\nsamples = 38\nvalue = 9.321", fillcolor="#fbede2"] ;
1 -> 2 ;
3 [label="squared_error = 14.15\nsamples = 6\nvalue = 4.88", fillcolor="#ffffff"] ;
2 -> 3 ;
4 [label="KNEE <= 37.15\nsquared_error = 16.422\nsamples = 32\nvalue = 10.246", fillcolor="#fae9dc"] ;
2 -> 4 ;
5 [label="squared_error = 17.818\nsamples = 20\nvalue = 12.185", fillcolor="#f9e1cf"] ;
4 -> 5 ;
6 [label="squared_error = 3.575\nsamples = 12\nvalue = 7.752", fillcolor="#fdf3ec"] ;
4 -> 6 ;
7 [label="WEIGHT <= 175.75\nsquared_error = 22.132\nsamples = 23\nvalue = 16.265", fillcolor="#f5d0b5"] ;
1 -> 7 ;
8 [label="AGE <= 51.0\nsquared_error = 17.821\nsamples = 17\nvalue = 17.61", fillcolor="#f4caac"] ;
7 -> 8 ;
9 [label="squared_error = 6.737\nsamples = 11\nvalue = 19.611", fillcolor="#f2c29f"] ;
8 -> 9 ;
10 [label="squared_error = 18.69\nsamples = 6\nvalue = 14.336", fillcolor="#f7d8c1"] ;
8 -> 10 ;
11 [label="squared_error = 7.409\nsamples = 6\nvalue = 11.388", fillcolor="#f9e4d4"] ;
7 -> 11 ;
12 [label="ABDOMEN <= 107.65\nsquared_error = 41.555\nsamples = 49\nvalue = 25.131", fillcolor="#eeab7b"] ;
0 -> 12 [labeldistance=2.5, labelangle=-45, headlabel="False"] ;
13 [label="ABDOMEN <= 98.3\nsquared_error = 17.037\nsamples = 42\nvalue = 23.21", fillcolor="#efb387"] ;
12 -> 13 ;
14 [label="CHEST <= 102.9\nsquared_error = 10.611\nsamples = 23\nvalue = 21.821", fillcolor="#f0b990"] ;
13 -> 14 ;
15 [label="squared_error = 6.427\nsamples = 15\nvalue = 23.075", fillcolor="#efb388"] ;
14 -> 15 ;
16 [label="squared_error = 7.058\nsamples = 8\nvalue = 18.627", fillcolor="#f3c6a5"] ;
14 -> 16 ;
17 [label="KNEE <= 41.65\nsquared_error = 19.587\nsamples = 19\nvalue = 25.079", fillcolor="#eeab7b"] ;
13 -> 17 ;
18 [label="squared_error = 9.871\nsamples = 10\nvalue = 27.687", fillcolor="#eba06a"] ;
17 -> 18 ;
19 [label="squared_error = 12.868\nsamples = 9\nvalue = 21.869", fillcolor="#f0b890"] ;
17 -> 19 ;
20 [label="squared_error = 49.588\nsamples = 7\nvalue = 35.177", fillcolor="#e58139"] ;
12 -> 20 ;
}