digraph Tree {
node [shape=box, style="filled", color="black", fontname="helvetica"] ;
edge [fontname="helvetica"] ;
0 [label="ABDOMEN <= 89.45\nsquared_error = 72.999\nsamples = 115\nvalue = 17.484", fillcolor="#f5ceb2"] ;
1 [label="CHEST <= 90.0\nsquared_error = 26.25\nsamples = 56\nvalue = 11.308", fillcolor="#fae8da"] ;
0 -> 1 [labeldistance=2.5, labelangle=45, headlabel="True"] ;
2 [label="squared_error = 15.737\nsamples = 9\nvalue = 5.711", fillcolor="#ffffff"] ;
1 -> 2 ;
3 [label="HIP <= 98.55\nsquared_error = 18.841\nsamples = 47\nvalue = 12.745", fillcolor="#f9e2d1"] ;
1 -> 3 ;
4 [label="HIP <= 95.95\nsquared_error = 16.211\nsamples = 37\nvalue = 13.627", fillcolor="#f8decb"] ;
3 -> 4 ;
5 [label="squared_error = 10.489\nsamples = 24\nvalue = 12.138", fillcolor="#f9e4d5"] ;
4 -> 5 ;
6 [label="squared_error = 15.086\nsamples = 13\nvalue = 16.39", fillcolor="#f6d3b9"] ;
4 -> 6 ;
7 [label="squared_error = 12.487\nsamples = 10\nvalue = 8.964", fillcolor="#fcf1ea"] ;
3 -> 7 ;
8 [label="ABDOMEN <= 99.15\nsquared_error = 34.738\nsamples = 59\nvalue = 24.405", fillcolor="#efb185"] ;
0 -> 8 [labeldistance=2.5, labelangle=-45, headlabel="False"] ;
9 [label="CHEST <= 103.0\nsquared_error = 17.472\nsamples = 33\nvalue = 21.555", fillcolor="#f1bd97"] ;
8 -> 9 ;
10 [label="FOREARM <= 27.75\nsquared_error = 14.851\nsamples = 22\nvalue = 22.515", fillcolor="#f1b991"] ;
9 -> 10 ;
11 [label="squared_error = 6.577\nsamples = 6\nvalue = 24.355", fillcolor="#efb185"] ;
10 -> 11 ;
12 [label="squared_error = 16.45\nsamples = 16\nvalue = 21.595", fillcolor="#f1bd97"] ;
10 -> 12 ;
13 [label="squared_error = 16.361\nsamples = 11\nvalue = 19.293", fillcolor="#f3c7a6"] ;
9 -> 13 ;
14 [label="CHEST <= 115.35\nsquared_error = 32.839\nsamples = 26\nvalue = 28.125", fillcolor="#eca26d"] ;
8 -> 14 ;
15 [label="WEIGHT <= 209.625\nsquared_error = 16.196\nsamples = 20\nvalue = 26.547", fillcolor="#eda877"] ;
14 -> 15 ;
16 [label="squared_error = 9.43\nsamples = 14\nvalue = 28.27", fillcolor="#eca16c"] ;
15 -> 16 ;
17 [label="squared_error = 11.91\nsamples = 6\nvalue = 23.1", fillcolor="#f0b78d"] ;
15 -> 17 ;
18 [label="squared_error = 41.315\nsamples = 6\nvalue = 36.017", fillcolor="#e58139"] ;
14 -> 18 ;
}