digraph Tree {
node [shape=box, style="filled", color="black", fontname="helvetica"] ;
edge [fontname="helvetica"] ;
0 [label="ABDOMEN <= 91.3\nsquared_error = 70.379\nsamples = 176\nvalue = 18.676", fillcolor="#f4ccae"] ;
1 [label="ABDOMEN <= 85.45\nsquared_error = 31.841\nsamples = 90\nvalue = 12.782", fillcolor="#fcefe5"] ;
0 -> 1 [labeldistance=2.5, labelangle=45, headlabel="True"] ;
2 [label="squared_error = 21.668\nsamples = 50\nvalue = 10.014", fillcolor="#ffffff"] ;
1 -> 2 ;
3 [label="squared_error = 23.004\nsamples = 40\nvalue = 16.242", fillcolor="#f7dac5"] ;
1 -> 3 ;
4 [label="ABDOMEN <= 104.9\nsquared_error = 36.311\nsamples = 86\nvalue = 24.844", fillcolor="#eda775"] ;
0 -> 4 [labeldistance=2.5, labelangle=-45, headlabel="False"] ;
5 [label="squared_error = 19.797\nsamples = 65\nvalue = 22.762", fillcolor="#efb488"] ;
4 -> 5 ;
6 [label="squared_error = 32.445\nsamples = 21\nvalue = 31.29", fillcolor="#e58139"] ;
4 -> 6 ;
}