digraph Tree {
node [shape=box, style="filled", color="black", fontname="helvetica"] ;
edge [fontname="helvetica"] ;
0 [label="ABDOMEN <= 91.3\nsquared_error = 70.379\nsamples = 176\nvalue = 18.676", fillcolor="#f3c7a7"] ;
1 [label="ABDOMEN <= 85.45\nsquared_error = 31.841\nsamples = 90\nvalue = 12.782", fillcolor="#f8dfcc"] ;
0 -> 1 [labeldistance=2.5, labelangle=45, headlabel="True"] ;
2 [label="AGE <= 42.5\nsquared_error = 21.668\nsamples = 50\nvalue = 10.014", fillcolor="#fbeade"] ;
1 -> 2 ;
3 [label="THIGH <= 52.15\nsquared_error = 18.586\nsamples = 32\nvalue = 8.584", fillcolor="#fcf0e7"] ;
2 -> 3 ;
4 [label="squared_error = 10.761\nsamples = 8\nvalue = 4.887", fillcolor="#ffffff"] ;
3 -> 4 ;
5 [label="WRIST <= 17.65\nsquared_error = 15.12\nsamples = 24\nvalue = 9.817", fillcolor="#fbebdf"] ;
3 -> 5 ;
6 [label="squared_error = 5.16\nsamples = 10\nvalue = 13.28", fillcolor="#f8ddc9"] ;
5 -> 6 ;
7 [label="squared_error = 7.547\nsamples = 14\nvalue = 7.343", fillcolor="#fdf5ef"] ;
5 -> 7 ;
8 [label="squared_error = 17.054\nsamples = 18\nvalue = 12.556", fillcolor="#f9e0ce"] ;
2 -> 8 ;
9 [label="NECK <= 36.85\nsquared_error = 23.004\nsamples = 40\nvalue = 16.242", fillcolor="#f5d1b6"] ;
1 -> 9 ;
10 [label="squared_error = 15.087\nsamples = 13\nvalue = 19.862", fillcolor="#f2c29f"] ;
9 -> 10 ;
11 [label="THIGH <= 59.45\nsquared_error = 17.474\nsamples = 27\nvalue = 14.5", fillcolor="#f7d8c2"] ;
9 -> 11 ;
12 [label="squared_error = 9.595\nsamples = 16\nvalue = 16.562", fillcolor="#f5cfb4"] ;
11 -> 12 ;
13 [label="squared_error = 13.747\nsamples = 11\nvalue = 11.5", fillcolor="#f9e4d5"] ;
11 -> 13 ;
14 [label="ABDOMEN <= 104.9\nsquared_error = 36.311\nsamples = 86\nvalue = 24.844", fillcolor="#eeae7f"] ;
0 -> 14 [labeldistance=2.5, labelangle=-45, headlabel="False"] ;
15 [label="HEIGHT <= 68.375\nsquared_error = 19.797\nsamples = 65\nvalue = 22.762", fillcolor="#f0b68d"] ;
14 -> 15 ;
16 [label="squared_error = 17.965\nsamples = 13\nvalue = 25.908", fillcolor="#eda979"] ;
15 -> 16 ;
17 [label="ANKLE <= 24.65\nsquared_error = 17.162\nsamples = 52\nvalue = 21.975", fillcolor="#f1b992"] ;
15 -> 17 ;
18 [label="ABDOMEN <= 100.45\nsquared_error = 17.507\nsamples = 41\nvalue = 22.729", fillcolor="#f0b68d"] ;
17 -> 18 ;
19 [label="NECK <= 39.05\nsquared_error = 14.648\nsamples = 32\nvalue = 21.881", fillcolor="#f1ba92"] ;
18 -> 19 ;
20 [label="squared_error = 11.882\nsamples = 17\nvalue = 23.224", fillcolor="#f0b48a"] ;
19 -> 20 ;
21 [label="squared_error = 13.426\nsamples = 15\nvalue = 20.36", fillcolor="#f2c09c"] ;
19 -> 21 ;
22 [label="squared_error = 16.025\nsamples = 9\nvalue = 25.744", fillcolor="#edaa7a"] ;
18 -> 22 ;
23 [label="squared_error = 5.851\nsamples = 11\nvalue = 19.164", fillcolor="#f3c5a4"] ;
17 -> 23 ;
24 [label="ABDOMEN <= 112.3\nsquared_error = 32.445\nsamples = 21\nvalue = 31.29", fillcolor="#e99456"] ;
14 -> 24 ;
25 [label="squared_error = 13.122\nsamples = 13\nvalue = 28.492", fillcolor="#eb9f68"] ;
24 -> 25 ;
26 [label="squared_error = 30.445\nsamples = 8\nvalue = 35.838", fillcolor="#e58139"] ;
24 -> 26 ;
}