digraph Tree {
node [shape=box, style="filled", color="black", fontname="helvetica"] ;
edge [fontname="helvetica"] ;
0 [label="CO <= 0.55\nsquared_error = 236.609\nsamples = 256\nvalue = 32.764", fillcolor="#f2c09c"] ;
1 [label="CLOUD <= 8.25\nsquared_error = 152.228\nsamples = 184\nvalue = 27.764", fillcolor="#f5cdb1"] ;
0 -> 1 [labeldistance=2.5, labelangle=45, headlabel="True"] ;
2 [label="PM10_B <= 83.5\nsquared_error = 140.121\nsamples = 149\nvalue = 30.205", fillcolor="#f3c7a7"] ;
1 -> 2 ;
3 [label="O3 <= 0.025\nsquared_error = 105.836\nsamples = 124\nvalue = 28.343", fillcolor="#f4ccae"] ;
2 -> 3 ;
4 [label="CO <= 0.45\nsquared_error = 86.058\nsamples = 44\nvalue = 23.818", fillcolor="#f7d8c1"] ;
3 -> 4 ;
5 [label="squared_error = 30.089\nsamples = 19\nvalue = 17.737", fillcolor="#fae8da"] ;
4 -> 5 ;
6 [label="squared_error = 79.126\nsamples = 25\nvalue = 28.44", fillcolor="#f4cbae"] ;
4 -> 6 ;
7 [label="season <= 1.5\nsquared_error = 99.262\nsamples = 80\nvalue = 30.831", fillcolor="#f3c5a4"] ;
3 -> 7 ;
8 [label="NO2 <= 0.027\nsquared_error = 87.755\nsamples = 36\nvalue = 35.375", fillcolor="#f1b991"] ;
7 -> 8 ;
9 [label="squared_error = 72.946\nsamples = 30\nvalue = 33.25", fillcolor="#f2bf9a"] ;
8 -> 9 ;
10 [label="squared_error = 26.333\nsamples = 6\nvalue = 46.0", fillcolor="#eb9d65"] ;
8 -> 10 ;
11 [label="PM10_J <= 130.5\nsquared_error = 77.964\nsamples = 44\nvalue = 27.114", fillcolor="#f5cfb3"] ;
7 -> 11 ;
12 [label="TEMP <= 26.25\nsquared_error = 57.995\nsamples = 41\nvalue = 25.829", fillcolor="#f6d2b9"] ;
11 -> 12 ;
13 [label="squared_error = 36.316\nsamples = 30\nvalue = 22.867", fillcolor="#f7dac5"] ;
12 -> 13 ;
14 [label="squared_error = 27.901\nsamples = 11\nvalue = 33.909", fillcolor="#f1bd97"] ;
12 -> 14 ;
15 [label="squared_error = 20.222\nsamples = 3\nvalue = 44.667", fillcolor="#eca16b"] ;
11 -> 15 ;
16 [label="squared_error = 207.686\nsamples = 25\nvalue = 39.44", fillcolor="#eeaf81"] ;
2 -> 16 ;
17 [label="CO <= 0.35\nsquared_error = 70.405\nsamples = 35\nvalue = 17.371", fillcolor="#fae9dc"] ;
1 -> 17 ;
18 [label="squared_error = 12.472\nsamples = 6\nvalue = 8.833", fillcolor="#ffffff"] ;
17 -> 18 ;
19 [label="squared_error = 64.188\nsamples = 29\nvalue = 19.138", fillcolor="#f9e4d4"] ;
17 -> 19 ;
20 [label="WIND_DIR <= 183.5\nsquared_error = 225.082\nsamples = 72\nvalue = 45.542", fillcolor="#eb9e67"] ;
0 -> 20 [labeldistance=2.5, labelangle=-45, headlabel="False"] ;
21 [label="NO2 <= 0.049\nsquared_error = 156.743\nsamples = 36\nvalue = 40.083", fillcolor="#eead7e"] ;
20 -> 21 ;
22 [label="squared_error = 129.375\nsamples = 32\nvalue = 38.0", fillcolor="#efb286"] ;
21 -> 22 ;
23 [label="squared_error = 63.188\nsamples = 4\nvalue = 56.75", fillcolor="#e58139"] ;
21 -> 23 ;
24 [label="O3 <= 0.014\nsquared_error = 233.833\nsamples = 36\nvalue = 51.0", fillcolor="#e89051"] ;
20 -> 24 ;
25 [label="squared_error = 132.698\nsamples = 13\nvalue = 41.385", fillcolor="#eda978"] ;
24 -> 25 ;
26 [label="squared_error = 209.202\nsamples = 23\nvalue = 56.435", fillcolor="#e5823a"] ;
24 -> 26 ;
}