digraph Tree {
node [shape=box, style="filled", color="black", fontname="helvetica"] ;
edge [fontname="helvetica"] ;
0 [label="CO <= 0.55\nsquared_error = 236.609\nsamples = 256\nvalue = 32.764", fillcolor="#f2c09c"] ;
1 [label="CLOUD <= 8.25\nsquared_error = 152.228\nsamples = 184\nvalue = 27.764", fillcolor="#f5cdb1"] ;
0 -> 1 [labeldistance=2.5, labelangle=45, headlabel="True"] ;
2 [label="PM10_B <= 83.5\nsquared_error = 140.121\nsamples = 149\nvalue = 30.205", fillcolor="#f3c7a7"] ;
1 -> 2 ;
3 [label="O3 <= 0.025\nsquared_error = 105.836\nsamples = 124\nvalue = 28.343", fillcolor="#f4ccae"] ;
2 -> 3 ;
4 [label="squared_error = 86.058\nsamples = 44\nvalue = 23.818", fillcolor="#f7d8c1"] ;
3 -> 4 ;
5 [label="squared_error = 99.262\nsamples = 80\nvalue = 30.831", fillcolor="#f3c5a4"] ;
3 -> 5 ;
6 [label="squared_error = 207.686\nsamples = 25\nvalue = 39.44", fillcolor="#eeaf81"] ;
2 -> 6 ;
7 [label="CO <= 0.35\nsquared_error = 70.405\nsamples = 35\nvalue = 17.371", fillcolor="#fae9dc"] ;
1 -> 7 ;
8 [label="squared_error = 12.472\nsamples = 6\nvalue = 8.833", fillcolor="#ffffff"] ;
7 -> 8 ;
9 [label="O3 <= 0.025\nsquared_error = 64.188\nsamples = 29\nvalue = 19.138", fillcolor="#f9e4d4"] ;
7 -> 9 ;
10 [label="squared_error = 35.273\nsamples = 22\nvalue = 17.0", fillcolor="#fbeadd"] ;
9 -> 10 ;
11 [label="squared_error = 95.551\nsamples = 7\nvalue = 25.857", fillcolor="#f6d2b9"] ;
9 -> 11 ;
12 [label="WIND_DIR <= 183.5\nsquared_error = 225.082\nsamples = 72\nvalue = 45.542", fillcolor="#eb9e67"] ;
0 -> 12 [labeldistance=2.5, labelangle=-45, headlabel="False"] ;
13 [label="NO2 <= 0.049\nsquared_error = 156.743\nsamples = 36\nvalue = 40.083", fillcolor="#eead7e"] ;
12 -> 13 ;
14 [label="season <= 2.5\nsquared_error = 129.375\nsamples = 32\nvalue = 38.0", fillcolor="#efb286"] ;
13 -> 14 ;
15 [label="squared_error = 135.25\nsamples = 22\nvalue = 41.5", fillcolor="#eda978"] ;
14 -> 15 ;
16 [label="squared_error = 30.21\nsamples = 10\nvalue = 30.3", fillcolor="#f3c7a6"] ;
14 -> 16 ;
17 [label="squared_error = 63.188\nsamples = 4\nvalue = 56.75", fillcolor="#e58139"] ;
13 -> 17 ;
18 [label="O3 <= 0.014\nsquared_error = 233.833\nsamples = 36\nvalue = 51.0", fillcolor="#e89051"] ;
12 -> 18 ;
19 [label="squared_error = 132.698\nsamples = 13\nvalue = 41.385", fillcolor="#eda978"] ;
18 -> 19 ;
20 [label="squared_error = 209.202\nsamples = 23\nvalue = 56.435", fillcolor="#e5823a"] ;
18 -> 20 ;
}