digraph Tree {
node [shape=box, style="filled", color="black", fontname="helvetica"] ;
edge [fontname="helvetica"] ;
0 [label="CO <= 0.55\nsquared_error = 236.609\nsamples = 256\nvalue = 32.764", fillcolor="#f6d5be"] ;
1 [label="CLOUD <= 8.25\nsquared_error = 152.228\nsamples = 184\nvalue = 27.764", fillcolor="#f8ddc9"] ;
0 -> 1 [labeldistance=2.5, labelangle=45, headlabel="True"] ;
2 [label="PM10_B <= 83.5\nsquared_error = 140.121\nsamples = 149\nvalue = 30.205", fillcolor="#f7d9c4"] ;
1 -> 2 ;
3 [label="O3 <= 0.025\nsquared_error = 105.836\nsamples = 124\nvalue = 28.343", fillcolor="#f8dcc8"] ;
2 -> 3 ;
4 [label="CO <= 0.45\nsquared_error = 86.058\nsamples = 44\nvalue = 23.818", fillcolor="#f9e3d3"] ;
3 -> 4 ;
5 [label="ATM_PRESS <= 1002.7\nsquared_error = 30.089\nsamples = 19\nvalue = 17.737", fillcolor="#fbece1"] ;
4 -> 5 ;
6 [label="TRAFIC <= 9206789.0\nsquared_error = 1.0\nsamples = 2\nvalue = 7.0", fillcolor="#fefcfa"] ;
5 -> 6 ;
7 [label="squared_error = 0.0\nsamples = 1\nvalue = 8.0", fillcolor="#fefaf8"] ;
6 -> 7 ;
8 [label="squared_error = 0.0\nsamples = 1\nvalue = 6.0", fillcolor="#fffefd"] ;
6 -> 8 ;
9 [label="WIND_DIR <= 174.5\nsquared_error = 18.353\nsamples = 17\nvalue = 19.0", fillcolor="#fbeade"] ;
5 -> 9 ;
10 [label="PM10_J <= 84.0\nsquared_error = 3.2\nsamples = 5\nvalue = 14.0", fillcolor="#fcf2ea"] ;
9 -> 10 ;
11 [label="PM10_B <= 44.5\nsquared_error = 1.0\nsamples = 2\nvalue = 12.0", fillcolor="#fdf4ee"] ;
10 -> 11 ;
12 [label="squared_error = 0.0\nsamples = 1\nvalue = 11.0", fillcolor="#fdf6f1"] ;
11 -> 12 ;
13 [label="squared_error = 0.0\nsamples = 1\nvalue = 13.0", fillcolor="#fdf3ec"] ;
11 -> 13 ;
14 [label="O3 <= 0.021\nsquared_error = 0.222\nsamples = 3\nvalue = 15.333", fillcolor="#fcf0e7"] ;
10 -> 14 ;
15 [label="squared_error = 0.0\nsamples = 2\nvalue = 15.0", fillcolor="#fcf0e7"] ;
14 -> 15 ;
16 [label="squared_error = 0.0\nsamples = 1\nvalue = 16.0", fillcolor="#fceee5"] ;
14 -> 16 ;
17 [label="NO2 <= 0.017\nsquared_error = 9.91\nsamples = 12\nvalue = 21.083", fillcolor="#fae7d9"] ;
9 -> 17 ;
18 [label="squared_error = 0.0\nsamples = 2\nvalue = 26.0", fillcolor="#f8e0ce"] ;
17 -> 18 ;
19 [label="ATM_PRESS <= 1012.1\nsquared_error = 6.09\nsamples = 10\nvalue = 20.1", fillcolor="#fae8db"] ;
17 -> 19 ;
20 [label="PM10_J <= 126.5\nsquared_error = 3.222\nsamples = 6\nvalue = 21.667", fillcolor="#fae6d8"] ;
19 -> 20 ;
21 [label="WIND_DIR <= 213.0\nsquared_error = 1.2\nsamples = 5\nvalue = 21.0", fillcolor="#fae7d9"] ;
20 -> 21 ;
22 [label="squared_error = 0.0\nsamples = 1\nvalue = 23.0", fillcolor="#f9e4d5"] ;
21 -> 22 ;
23 [label="PM10_B <= 44.5\nsquared_error = 0.25\nsamples = 4\nvalue = 20.5", fillcolor="#fae8da"] ;
21 -> 23 ;
24 [label="squared_error = 0.0\nsamples = 2\nvalue = 20.0", fillcolor="#fae8dc"] ;
23 -> 24 ;
25 [label="squared_error = 0.0\nsamples = 2\nvalue = 21.0", fillcolor="#fae7d9"] ;
23 -> 25 ;
26 [label="squared_error = 0.0\nsamples = 1\nvalue = 25.0", fillcolor="#f9e1d0"] ;
20 -> 26 ;
27 [label="ATM_PRESS <= 1017.55\nsquared_error = 1.188\nsamples = 4\nvalue = 17.75", fillcolor="#fbece1"] ;
19 -> 27 ;
28 [label="NO2 <= 0.019\nsquared_error = 0.222\nsamples = 3\nvalue = 18.333", fillcolor="#fbebe0"] ;
27 -> 28 ;
29 [label="squared_error = 0.0\nsamples = 1\nvalue = 19.0", fillcolor="#fbeade"] ;
28 -> 29 ;
30 [label="squared_error = 0.0\nsamples = 2\nvalue = 18.0", fillcolor="#fbece0"] ;
28 -> 30 ;
31 [label="squared_error = 0.0\nsamples = 1\nvalue = 16.0", fillcolor="#fceee5"] ;
27 -> 31 ;
32 [label="NO2 <= 0.033\nsquared_error = 79.126\nsamples = 25\nvalue = 28.44", fillcolor="#f8dcc8"] ;
4 -> 32 ;
33 [label="TEMP <= 24.16\nsquared_error = 63.198\nsamples = 22\nvalue = 26.727", fillcolor="#f8decc"] ;
32 -> 33 ;
34 [label="ATM_PRESS <= 1003.15\nsquared_error = 49.204\nsamples = 17\nvalue = 29.176", fillcolor="#f8dbc6"] ;
33 -> 34 ;
35 [label="squared_error = 0.0\nsamples = 1\nvalue = 50.0", fillcolor="#f1bc95"] ;
34 -> 35 ;
36 [label="PM10_J <= 49.5\nsquared_error = 23.484\nsamples = 16\nvalue = 27.875", fillcolor="#f8ddc9"] ;
34 -> 36 ;
37 [label="WIND_DIR <= 228.0\nsquared_error = 14.0\nsamples = 3\nvalue = 34.0", fillcolor="#f6d4bb"] ;
36 -> 37 ;
38 [label="squared_error = 0.0\nsamples = 1\nvalue = 29.0", fillcolor="#f8dbc6"] ;
37 -> 38 ;
39 [label="RAIN_WEIGHT <= 0.06\nsquared_error = 2.25\nsamples = 2\nvalue = 36.5", fillcolor="#f5d0b5"] ;
37 -> 39 ;
40 [label="squared_error = 0.0\nsamples = 1\nvalue = 38.0", fillcolor="#f5ceb1"] ;
39 -> 40 ;
41 [label="squared_error = 0.0\nsamples = 1\nvalue = 35.0", fillcolor="#f6d2b8"] ;
39 -> 41 ;
42 [label="WIND_DIR <= 283.0\nsquared_error = 15.018\nsamples = 13\nvalue = 26.462", fillcolor="#f8dfcc"] ;
36 -> 42 ;
43 [label="HUMIDITY <= 50.8\nsquared_error = 9.69\nsamples = 10\nvalue = 25.1", fillcolor="#f9e1d0"] ;
42 -> 43 ;
44 [label="WIND_DIR <= 217.0\nsquared_error = 2.889\nsamples = 3\nvalue = 28.667", fillcolor="#f8dcc7"] ;
43 -> 44 ;
45 [label="squared_error = 0.0\nsamples = 1\nvalue = 31.0", fillcolor="#f7d8c2"] ;
44 -> 45 ;
46 [label="TEMP <= -3.595\nsquared_error = 0.25\nsamples = 2\nvalue = 27.5", fillcolor="#f8ddca"] ;
44 -> 46 ;
47 [label="squared_error = 0.0\nsamples = 1\nvalue = 28.0", fillcolor="#f8dcc9"] ;
46 -> 47 ;
48 [label="squared_error = 0.0\nsamples = 1\nvalue = 27.0", fillcolor="#f8decb"] ;
46 -> 48 ;
49 [label="CLOUD <= 4.46\nsquared_error = 4.816\nsamples = 7\nvalue = 23.571", fillcolor="#f9e3d3"] ;
43 -> 49 ;
50 [label="PM10_J <= 84.5\nsquared_error = 1.5\nsamples = 4\nvalue = 22.0", fillcolor="#fae6d7"] ;
49 -> 50 ;
51 [label="squared_error = 0.0\nsamples = 1\nvalue = 20.0", fillcolor="#fae8dc"] ;
50 -> 51 ;
52 [label="TRAFIC <= 9170294.5\nsquared_error = 0.222\nsamples = 3\nvalue = 22.667", fillcolor="#fae4d5"] ;
50 -> 52 ;
53 [label="squared_error = 0.0\nsamples = 1\nvalue = 22.0", fillcolor="#fae6d7"] ;
52 -> 53 ;
54 [label="squared_error = 0.0\nsamples = 2\nvalue = 23.0", fillcolor="#f9e4d5"] ;
52 -> 54 ;
55 [label="WIND_DIR <= 268.5\nsquared_error = 1.556\nsamples = 3\nvalue = 25.667", fillcolor="#f9e0ce"] ;
49 -> 55 ;
56 [label="PM10_B <= 57.0\nsquared_error = 0.25\nsamples = 2\nvalue = 26.5", fillcolor="#f8dfcc"] ;
55 -> 56 ;
57 [label="squared_error = 0.0\nsamples = 1\nvalue = 26.0", fillcolor="#f8e0ce"] ;
56 -> 57 ;
58 [label="squared_error = 0.0\nsamples = 1\nvalue = 27.0", fillcolor="#f8decb"] ;
56 -> 58 ;
59 [label="squared_error = 0.0\nsamples = 1\nvalue = 24.0", fillcolor="#f9e2d2"] ;
55 -> 59 ;
60 [label="CLOUD <= 1.98\nsquared_error = 6.0\nsamples = 3\nvalue = 31.0", fillcolor="#f7d8c2"] ;
42 -> 60 ;
61 [label="squared_error = 0.0\nsamples = 1\nvalue = 28.0", fillcolor="#f8dcc9"] ;
60 -> 61 ;
62 [label="season <= 1.5\nsquared_error = 2.25\nsamples = 2\nvalue = 32.5", fillcolor="#f6d6be"] ;
60 -> 62 ;
63 [label="squared_error = 0.0\nsamples = 1\nvalue = 34.0", fillcolor="#f6d4bb"] ;
62 -> 63 ;
64 [label="squared_error = 0.0\nsamples = 1\nvalue = 31.0", fillcolor="#f7d8c2"] ;
62 -> 64 ;
65 [label="PM10_B <= 44.5\nsquared_error = 21.04\nsamples = 5\nvalue = 18.4", fillcolor="#fbebdf"] ;
33 -> 65 ;
66 [label="WIND <= 1.7\nsquared_error = 3.188\nsamples = 4\nvalue = 16.25", fillcolor="#fceee4"] ;
65 -> 66 ;
67 [label="squared_error = 0.0\nsamples = 1\nvalue = 19.0", fillcolor="#fbeade"] ;
66 -> 67 ;
68 [label="PM10_T <= 40.5\nsquared_error = 0.889\nsamples = 3\nvalue = 15.333", fillcolor="#fcf0e7"] ;
66 -> 68 ;
69 [label="squared_error = 0.0\nsamples = 2\nvalue = 16.0", fillcolor="#fceee5"] ;
68 -> 69 ;
70 [label="squared_error = 0.0\nsamples = 1\nvalue = 14.0", fillcolor="#fcf2ea"] ;
68 -> 70 ;
71 [label="squared_error = 0.0\nsamples = 1\nvalue = 27.0", fillcolor="#f8decb"] ;
65 -> 71 ;
72 [label="HUMIDITY <= 47.6\nsquared_error = 16.667\nsamples = 3\nvalue = 41.0", fillcolor="#f4c9aa"] ;
32 -> 72 ;
73 [label="squared_error = 0.0\nsamples = 1\nvalue = 36.0", fillcolor="#f5d0b6"] ;
72 -> 73 ;
74 [label="WIND <= 1.89\nsquared_error = 6.25\nsamples = 2\nvalue = 43.5", fillcolor="#f3c5a4"] ;
72 -> 74 ;
75 [label="squared_error = 0.0\nsamples = 1\nvalue = 41.0", fillcolor="#f4c9aa"] ;
74 -> 75 ;
76 [label="squared_error = 0.0\nsamples = 1\nvalue = 46.0", fillcolor="#f2c29e"] ;
74 -> 76 ;
77 [label="season <= 1.5\nsquared_error = 99.262\nsamples = 80\nvalue = 30.831", fillcolor="#f7d8c2"] ;
3 -> 77 ;
78 [label="NO2 <= 0.027\nsquared_error = 87.755\nsamples = 36\nvalue = 35.375", fillcolor="#f6d1b7"] ;
77 -> 78 ;
79 [label="WIND <= 3.815\nsquared_error = 72.946\nsamples = 30\nvalue = 33.25", fillcolor="#f6d5bc"] ;
78 -> 79 ;
80 [label="PM10_B <= 19.0\nsquared_error = 51.809\nsamples = 29\nvalue = 32.362", fillcolor="#f7d6bf"] ;
79 -> 80 ;
81 [label="ATM_PRESS <= 1009.0\nsquared_error = 7.688\nsamples = 4\nvalue = 39.25", fillcolor="#f4ccae"] ;
80 -> 81 ;
82 [label="TRAFIC <= 8443617.5\nsquared_error = 0.222\nsamples = 3\nvalue = 37.667", fillcolor="#f5ceb2"] ;
81 -> 82 ;
83 [label="squared_error = 0.0\nsamples = 1\nvalue = 37.0", fillcolor="#f5cfb4"] ;
82 -> 83 ;
84 [label="squared_error = 0.0\nsamples = 2\nvalue = 38.0", fillcolor="#f5ceb1"] ;
82 -> 84 ;
85 [label="squared_error = 0.0\nsamples = 1\nvalue = 44.0", fillcolor="#f3c4a3"] ;
81 -> 85 ;
86 [label="CLOUD <= 7.355\nsquared_error = 50.062\nsamples = 25\nvalue = 31.26", fillcolor="#f7d8c1"] ;
80 -> 86 ;
87 [label="PM10_T <= 30.5\nsquared_error = 35.43\nsamples = 22\nvalue = 32.455", fillcolor="#f7d6be"] ;
86 -> 87 ;
88 [label="squared_error = 0.0\nsamples = 1\nvalue = 19.0", fillcolor="#fbeade"] ;
87 -> 88 ;
89 [label="TEMP <= 2.755\nsquared_error = 28.086\nsamples = 21\nvalue = 33.095", fillcolor="#f6d5bd"] ;
87 -> 89 ;
90 [label="squared_error = 0.0\nsamples = 1\nvalue = 21.0", fillcolor="#fae7d9"] ;
89 -> 90 ;
91 [label="PM10_T <= 41.5\nsquared_error = 21.81\nsamples = 20\nvalue = 33.7", fillcolor="#f6d4bb"] ;
89 -> 91 ;
92 [label="squared_error = 0.0\nsamples = 2\nvalue = 41.0", fillcolor="#f4c9aa"] ;
91 -> 92 ;
93 [label="PM10_J <= 82.0\nsquared_error = 17.654\nsamples = 18\nvalue = 32.889", fillcolor="#f6d5bd"] ;
91 -> 93 ;
94 [label="CO <= 0.45\nsquared_error = 16.889\nsamples = 9\nvalue = 31.0", fillcolor="#f7d8c2"] ;
93 -> 94 ;
95 [label="TRAFIC <= 8218317.0\nsquared_error = 3.583\nsamples = 6\nvalue = 28.5", fillcolor="#f8dcc8"] ;
94 -> 95 ;
96 [label="squared_error = 0.0\nsamples = 1\nvalue = 25.0", fillcolor="#f9e1d0"] ;
95 -> 96 ;
97 [label="WIND_DIR <= 288.0\nsquared_error = 1.36\nsamples = 5\nvalue = 29.2", fillcolor="#f8dbc6"] ;
95 -> 97 ;
98 [label="TRAFIC <= 10034832.0\nsquared_error = 0.25\nsamples = 2\nvalue = 30.5", fillcolor="#f7d9c3"] ;
97 -> 98 ;
99 [label="squared_error = 0.0\nsamples = 1\nvalue = 30.0", fillcolor="#f7d9c4"] ;
98 -> 99 ;
100 [label="squared_error = 0.0\nsamples = 1\nvalue = 31.0", fillcolor="#f7d8c2"] ;
98 -> 100 ;
101 [label="PM10_T <= 47.0\nsquared_error = 0.222\nsamples = 3\nvalue = 28.333", fillcolor="#f8dcc8"] ;
97 -> 101 ;
102 [label="squared_error = 0.0\nsamples = 1\nvalue = 29.0", fillcolor="#f8dbc6"] ;
101 -> 102 ;
103 [label="squared_error = 0.0\nsamples = 2\nvalue = 28.0", fillcolor="#f8dcc9"] ;
101 -> 103 ;
104 [label="PM10_B <= 61.5\nsquared_error = 6.0\nsamples = 3\nvalue = 36.0", fillcolor="#f5d0b6"] ;
94 -> 104 ;
105 [label="PM10_T <= 49.5\nsquared_error = 2.25\nsamples = 2\nvalue = 37.5", fillcolor="#f5ceb2"] ;
104 -> 105 ;
106 [label="squared_error = 0.0\nsamples = 1\nvalue = 36.0", fillcolor="#f5d0b6"] ;
105 -> 106 ;
107 [label="squared_error = 0.0\nsamples = 1\nvalue = 39.0", fillcolor="#f4ccaf"] ;
105 -> 107 ;
108 [label="squared_error = 0.0\nsamples = 1\nvalue = 33.0", fillcolor="#f6d5bd"] ;
104 -> 108 ;
109 [label="WIND <= 3.465\nsquared_error = 11.284\nsamples = 9\nvalue = 34.778", fillcolor="#f6d2b9"] ;
93 -> 109 ;
110 [label="NO2 <= 0.02\nsquared_error = 2.583\nsamples = 6\nvalue = 36.5", fillcolor="#f5d0b5"] ;
109 -> 110 ;
111 [label="HUMIDITY <= 27.5\nsquared_error = 0.16\nsamples = 5\nvalue = 37.2", fillcolor="#f5cfb3"] ;
110 -> 111 ;
112 [label="squared_error = 0.0\nsamples = 1\nvalue = 38.0", fillcolor="#f5ceb1"] ;
111 -> 112 ;
113 [label="squared_error = 0.0\nsamples = 4\nvalue = 37.0", fillcolor="#f5cfb4"] ;
111 -> 113 ;
114 [label="squared_error = 0.0\nsamples = 1\nvalue = 33.0", fillcolor="#f6d5bd"] ;
110 -> 114 ;
115 [label="WIND_DIR <= 281.5\nsquared_error = 10.889\nsamples = 3\nvalue = 31.333", fillcolor="#f7d8c1"] ;
109 -> 115 ;
116 [label="squared_error = 0.0\nsamples = 2\nvalue = 29.0", fillcolor="#f8dbc6"] ;
115 -> 116 ;
117 [label="squared_error = 0.0\nsamples = 1\nvalue = 36.0", fillcolor="#f5d0b6"] ;
115 -> 117 ;
118 [label="PM10_B <= 25.5\nsquared_error = 70.167\nsamples = 3\nvalue = 22.5", fillcolor="#fae5d6"] ;
86 -> 118 ;
119 [label="PM10_J <= 43.0\nsquared_error = 22.562\nsamples = 2\nvalue = 27.75", fillcolor="#f8ddc9"] ;
118 -> 119 ;
120 [label="squared_error = 0.0\nsamples = 1\nvalue = 23.0", fillcolor="#f9e4d5"] ;
119 -> 120 ;
121 [label="squared_error = 0.0\nsamples = 1\nvalue = 32.5", fillcolor="#f6d6be"] ;
119 -> 121 ;
122 [label="squared_error = 0.0\nsamples = 1\nvalue = 12.0", fillcolor="#fdf4ee"] ;
118 -> 122 ;
123 [label="squared_error = 0.0\nsamples = 1\nvalue = 59.0", fillcolor="#eeae80"] ;
79 -> 123 ;
124 [label="TEMP <= 9.585\nsquared_error = 26.333\nsamples = 6\nvalue = 46.0", fillcolor="#f2c29e"] ;
78 -> 124 ;
125 [label="squared_error = 0.0\nsamples = 1\nvalue = 36.0", fillcolor="#f5d0b6"] ;
124 -> 125 ;
126 [label="NO2 <= 0.028\nsquared_error = 7.6\nsamples = 5\nvalue = 48.0", fillcolor="#f2be9a"] ;
124 -> 126 ;
127 [label="squared_error = 0.0\nsamples = 1\nvalue = 53.0", fillcolor="#f0b78e"] ;
126 -> 127 ;
128 [label="WIND_DIR <= 177.0\nsquared_error = 1.688\nsamples = 4\nvalue = 46.75", fillcolor="#f2c09d"] ;
126 -> 128 ;
129 [label="squared_error = 0.0\nsamples = 2\nvalue = 48.0", fillcolor="#f2be9a"] ;
128 -> 129 ;
130 [label="ATM_PRESS <= 1004.85\nsquared_error = 0.25\nsamples = 2\nvalue = 45.5", fillcolor="#f2c2a0"] ;
128 -> 130 ;
131 [label="squared_error = 0.0\nsamples = 1\nvalue = 46.0", fillcolor="#f2c29e"] ;
130 -> 131 ;
132 [label="squared_error = 0.0\nsamples = 1\nvalue = 45.0", fillcolor="#f3c3a1"] ;
130 -> 132 ;
133 [label="PM10_J <= 130.5\nsquared_error = 77.964\nsamples = 44\nvalue = 27.114", fillcolor="#f8decb"] ;
77 -> 133 ;
134 [label="TEMP <= 26.25\nsquared_error = 57.995\nsamples = 41\nvalue = 25.829", fillcolor="#f9e0ce"] ;
133 -> 134 ;
135 [label="O3 <= 0.034\nsquared_error = 36.316\nsamples = 30\nvalue = 22.867", fillcolor="#f9e4d5"] ;
134 -> 135 ;
136 [label="ATM_PRESS <= 1005.05\nsquared_error = 28.071\nsamples = 13\nvalue = 18.923", fillcolor="#fbeade"] ;
135 -> 136 ;
137 [label="RAIN <= 0.5\nsquared_error = 23.633\nsamples = 7\nvalue = 15.714", fillcolor="#fcefe6"] ;
136 -> 137 ;
138 [label="WIND_DIR <= 172.0\nsquared_error = 2.0\nsamples = 4\nvalue = 12.0", fillcolor="#fdf4ee"] ;
137 -> 138 ;
139 [label="squared_error = 0.0\nsamples = 1\nvalue = 10.0", fillcolor="#fdf7f3"] ;
138 -> 139 ;
140 [label="TEMP <= 23.78\nsquared_error = 0.889\nsamples = 3\nvalue = 12.667", fillcolor="#fdf4ed"] ;
138 -> 140 ;
141 [label="squared_error = 0.0\nsamples = 2\nvalue = 12.0", fillcolor="#fdf4ee"] ;
140 -> 141 ;
142 [label="squared_error = 0.0\nsamples = 1\nvalue = 14.0", fillcolor="#fcf2ea"] ;
140 -> 142 ;
143 [label="PM10_J <= 71.0\nsquared_error = 9.556\nsamples = 3\nvalue = 20.667", fillcolor="#fae8da"] ;
137 -> 143 ;
144 [label="RAIN_WEIGHT <= 0.04\nsquared_error = 0.25\nsamples = 2\nvalue = 18.5", fillcolor="#fbebdf"] ;
143 -> 144 ;
145 [label="squared_error = 0.0\nsamples = 1\nvalue = 18.0", fillcolor="#fbece0"] ;
144 -> 145 ;
146 [label="squared_error = 0.0\nsamples = 1\nvalue = 19.0", fillcolor="#fbeade"] ;
144 -> 146 ;
147 [label="squared_error = 0.0\nsamples = 1\nvalue = 25.0", fillcolor="#f9e1d0"] ;
143 -> 147 ;
148 [label="TRAFIC <= 9604207.0\nsquared_error = 7.222\nsamples = 6\nvalue = 22.667", fillcolor="#fae4d5"] ;
136 -> 148 ;
149 [label="WIND_DIR <= 291.0\nsquared_error = 2.25\nsamples = 2\nvalue = 19.5", fillcolor="#fbe9dd"] ;
148 -> 149 ;
150 [label="squared_error = 0.0\nsamples = 1\nvalue = 18.0", fillcolor="#fbece0"] ;
149 -> 150 ;
151 [label="squared_error = 0.0\nsamples = 1\nvalue = 21.0", fillcolor="#fae7d9"] ;
149 -> 151 ;
152 [label="PM10_T <= 37.5\nsquared_error = 2.188\nsamples = 4\nvalue = 24.25", fillcolor="#f9e2d2"] ;
148 -> 152 ;
153 [label="squared_error = 0.0\nsamples = 1\nvalue = 22.0", fillcolor="#fae6d7"] ;
152 -> 153 ;
154 [label="CO <= 0.35\nsquared_error = 0.667\nsamples = 3\nvalue = 25.0", fillcolor="#f9e1d0"] ;
152 -> 154 ;
155 [label="squared_error = 0.0\nsamples = 1\nvalue = 26.0", fillcolor="#f8e0ce"] ;
154 -> 155 ;
156 [label="O3 <= 0.029\nsquared_error = 0.25\nsamples = 2\nvalue = 24.5", fillcolor="#f9e2d1"] ;
154 -> 156 ;
157 [label="squared_error = 0.0\nsamples = 1\nvalue = 24.0", fillcolor="#f9e2d2"] ;
156 -> 157 ;
158 [label="squared_error = 0.0\nsamples = 1\nvalue = 25.0", fillcolor="#f9e1d0"] ;
156 -> 158 ;
159 [label="TEMP <= 23.79\nsquared_error = 21.633\nsamples = 17\nvalue = 25.882", fillcolor="#f9e0ce"] ;
135 -> 159 ;
160 [label="CLOUD <= 4.75\nsquared_error = 5.556\nsamples = 3\nvalue = 19.667", fillcolor="#fae9dc"] ;
159 -> 160 ;
161 [label="squared_error = 0.0\nsamples = 2\nvalue = 18.0", fillcolor="#fbece0"] ;
160 -> 161 ;
162 [label="squared_error = 0.0\nsamples = 1\nvalue = 23.0", fillcolor="#f9e4d5"] ;
160 -> 162 ;
163 [label="PM10_J <= 65.0\nsquared_error = 15.026\nsamples = 14\nvalue = 27.214", fillcolor="#f8decb"] ;
159 -> 163 ;
164 [label="WIND <= 2.42\nsquared_error = 12.188\nsamples = 4\nvalue = 23.25", fillcolor="#f9e4d4"] ;
163 -> 164 ;
165 [label="TEMP <= 25.89\nsquared_error = 1.556\nsamples = 3\nvalue = 21.333", fillcolor="#fae6d9"] ;
164 -> 165 ;
166 [label="RAIN_WEIGHT <= 0.015\nsquared_error = 0.25\nsamples = 2\nvalue = 20.5", fillcolor="#fae8da"] ;
165 -> 166 ;
167 [label="squared_error = 0.0\nsamples = 1\nvalue = 20.0", fillcolor="#fae8dc"] ;
166 -> 167 ;
168 [label="squared_error = 0.0\nsamples = 1\nvalue = 21.0", fillcolor="#fae7d9"] ;
166 -> 168 ;
169 [label="squared_error = 0.0\nsamples = 1\nvalue = 23.0", fillcolor="#f9e4d5"] ;
165 -> 169 ;
170 [label="squared_error = 0.0\nsamples = 1\nvalue = 29.0", fillcolor="#f8dbc6"] ;
164 -> 170 ;
171 [label="ATM_PRESS <= 999.3\nsquared_error = 7.36\nsamples = 10\nvalue = 28.8", fillcolor="#f8dbc7"] ;
163 -> 171 ;
172 [label="PM10_J <= 74.5\nsquared_error = 2.688\nsamples = 8\nvalue = 27.75", fillcolor="#f8ddc9"] ;
171 -> 172 ;
173 [label="O3 <= 0.043\nsquared_error = 0.222\nsamples = 3\nvalue = 29.667", fillcolor="#f7dac5"] ;
172 -> 173 ;
174 [label="squared_error = 0.0\nsamples = 2\nvalue = 30.0", fillcolor="#f7d9c4"] ;
173 -> 174 ;
175 [label="squared_error = 0.0\nsamples = 1\nvalue = 29.0", fillcolor="#f8dbc6"] ;
173 -> 175 ;
176 [label="CO <= 0.45\nsquared_error = 0.64\nsamples = 5\nvalue = 26.6", fillcolor="#f8dfcc"] ;
172 -> 176 ;
177 [label="O3 <= 0.039\nsquared_error = 0.25\nsamples = 2\nvalue = 27.5", fillcolor="#f8ddca"] ;
176 -> 177 ;
178 [label="squared_error = 0.0\nsamples = 1\nvalue = 28.0", fillcolor="#f8dcc9"] ;
177 -> 178 ;
179 [label="squared_error = 0.0\nsamples = 1\nvalue = 27.0", fillcolor="#f8decb"] ;
177 -> 179 ;
180 [label="squared_error = 0.0\nsamples = 3\nvalue = 26.0", fillcolor="#f8e0ce"] ;
176 -> 180 ;
181 [label="TRAFIC <= 9580444.0\nsquared_error = 4.0\nsamples = 2\nvalue = 33.0", fillcolor="#f6d5bd"] ;
171 -> 181 ;
182 [label="squared_error = 0.0\nsamples = 1\nvalue = 35.0", fillcolor="#f6d2b8"] ;
181 -> 182 ;
183 [label="squared_error = 0.0\nsamples = 1\nvalue = 31.0", fillcolor="#f7d8c2"] ;
181 -> 183 ;
184 [label="O3 <= 0.039\nsquared_error = 27.901\nsamples = 11\nvalue = 33.909", fillcolor="#f6d4bb"] ;
134 -> 184 ;
185 [label="TEMP <= 28.6\nsquared_error = 11.139\nsamples = 6\nvalue = 38.167", fillcolor="#f5cdb1"] ;
184 -> 185 ;
186 [label="CLOUD <= 7.46\nsquared_error = 3.688\nsamples = 4\nvalue = 36.25", fillcolor="#f5d0b5"] ;
185 -> 186 ;
187 [label="SO2 <= 0.004\nsquared_error = 0.222\nsamples = 3\nvalue = 37.333", fillcolor="#f5ceb3"] ;
186 -> 187 ;
188 [label="squared_error = 0.0\nsamples = 1\nvalue = 38.0", fillcolor="#f5ceb1"] ;
187 -> 188 ;
189 [label="squared_error = 0.0\nsamples = 2\nvalue = 37.0", fillcolor="#f5cfb4"] ;
187 -> 189 ;
190 [label="squared_error = 0.0\nsamples = 1\nvalue = 33.0", fillcolor="#f6d5bd"] ;
186 -> 190 ;
191 [label="ATM_PRESS <= 999.0\nsquared_error = 4.0\nsamples = 2\nvalue = 42.0", fillcolor="#f4c8a8"] ;
185 -> 191 ;
192 [label="squared_error = 0.0\nsamples = 1\nvalue = 44.0", fillcolor="#f3c4a3"] ;
191 -> 192 ;
193 [label="squared_error = 0.0\nsamples = 1\nvalue = 40.0", fillcolor="#f4caac"] ;
191 -> 193 ;
194 [label="PM10_B <= 51.5\nsquared_error = 0.16\nsamples = 5\nvalue = 28.8", fillcolor="#f8dbc7"] ;
184 -> 194 ;
195 [label="squared_error = 0.0\nsamples = 4\nvalue = 29.0", fillcolor="#f8dbc6"] ;
194 -> 195 ;
196 [label="squared_error = 0.0\nsamples = 1\nvalue = 28.0", fillcolor="#f8dcc9"] ;
194 -> 196 ;
197 [label="WIND <= 1.97\nsquared_error = 20.222\nsamples = 3\nvalue = 44.667", fillcolor="#f3c4a2"] ;
133 -> 197 ;
198 [label="squared_error = 0.0\nsamples = 1\nvalue = 39.0", fillcolor="#f4ccaf"] ;
197 -> 198 ;
199 [label="O3 <= 0.043\nsquared_error = 6.25\nsamples = 2\nvalue = 47.5", fillcolor="#f2bf9b"] ;
197 -> 199 ;
200 [label="squared_error = 0.0\nsamples = 1\nvalue = 45.0", fillcolor="#f3c3a1"] ;
199 -> 200 ;
201 [label="squared_error = 0.0\nsamples = 1\nvalue = 50.0", fillcolor="#f1bc95"] ;
199 -> 201 ;
202 [label="WIND_DIR <= 282.0\nsquared_error = 207.686\nsamples = 25\nvalue = 39.44", fillcolor="#f4cbae"] ;
2 -> 202 ;
203 [label="WIND_DIR <= 201.0\nsquared_error = 117.096\nsamples = 23\nvalue = 36.652", fillcolor="#f5d0b4"] ;
202 -> 203 ;
204 [label="TRAFIC <= 10077993.5\nsquared_error = 24.0\nsamples = 6\nvalue = 25.0", fillcolor="#f9e1d0"] ;
203 -> 204 ;
205 [label="CLOUD <= 7.02\nsquared_error = 4.8\nsamples = 5\nvalue = 23.0", fillcolor="#f9e4d5"] ;
204 -> 205 ;
206 [label="WIND <= 1.47\nsquared_error = 0.889\nsamples = 3\nvalue = 24.667", fillcolor="#f9e2d1"] ;
205 -> 206 ;
207 [label="squared_error = 0.0\nsamples = 1\nvalue = 26.0", fillcolor="#f8e0ce"] ;
206 -> 207 ;
208 [label="squared_error = 0.0\nsamples = 2\nvalue = 24.0", fillcolor="#f9e2d2"] ;
206 -> 208 ;
209 [label="RAIN_WEIGHT <= 0.05\nsquared_error = 0.25\nsamples = 2\nvalue = 20.5", fillcolor="#fae8da"] ;
205 -> 209 ;
210 [label="squared_error = 0.0\nsamples = 1\nvalue = 21.0", fillcolor="#fae7d9"] ;
209 -> 210 ;
211 [label="squared_error = 0.0\nsamples = 1\nvalue = 20.0", fillcolor="#fae8dc"] ;
209 -> 211 ;
212 [label="squared_error = 0.0\nsamples = 1\nvalue = 35.0", fillcolor="#f6d2b8"] ;
204 -> 212 ;
213 [label="TRAFIC <= 9901904.5\nsquared_error = 85.121\nsamples = 17\nvalue = 40.765", fillcolor="#f4c9ab"] ;
203 -> 213 ;
214 [label="WIND <= 2.575\nsquared_error = 28.81\nsamples = 11\nvalue = 46.091", fillcolor="#f2c19e"] ;
213 -> 214 ;
215 [label="O3 <= 0.039\nsquared_error = 10.765\nsamples = 9\nvalue = 48.111", fillcolor="#f2be99"] ;
214 -> 215 ;
216 [label="ATM_PRESS <= 1005.85\nsquared_error = 6.556\nsamples = 6\nvalue = 49.667", fillcolor="#f1bc96"] ;
215 -> 216 ;
217 [label="CLOUD <= 5.75\nsquared_error = 4.222\nsamples = 3\nvalue = 51.667", fillcolor="#f1b991"] ;
216 -> 217 ;
218 [label="HUMIDITY <= 49.55\nsquared_error = 1.0\nsamples = 2\nvalue = 53.0", fillcolor="#f0b78e"] ;
217 -> 218 ;
219 [label="squared_error = 0.0\nsamples = 1\nvalue = 54.0", fillcolor="#f0b68c"] ;
218 -> 219 ;
220 [label="squared_error = 0.0\nsamples = 1\nvalue = 52.0", fillcolor="#f0b890"] ;
218 -> 220 ;
221 [label="squared_error = 0.0\nsamples = 1\nvalue = 49.0", fillcolor="#f1bd97"] ;
217 -> 221 ;
222 [label="ATM_PRESS <= 1010.2\nsquared_error = 0.889\nsamples = 3\nvalue = 47.667", fillcolor="#f2bf9a"] ;
216 -> 222 ;
223 [label="squared_error = 0.0\nsamples = 2\nvalue = 47.0", fillcolor="#f2c09c"] ;
222 -> 223 ;
224 [label="squared_error = 0.0\nsamples = 1\nvalue = 49.0", fillcolor="#f1bd97"] ;
222 -> 224 ;
225 [label="PM10_T <= 106.0\nsquared_error = 4.667\nsamples = 3\nvalue = 45.0", fillcolor="#f3c3a1"] ;
215 -> 225 ;
226 [label="PM10_J <= 72.5\nsquared_error = 0.25\nsamples = 2\nvalue = 46.5", fillcolor="#f2c19d"] ;
225 -> 226 ;
227 [label="squared_error = 0.0\nsamples = 1\nvalue = 47.0", fillcolor="#f2c09c"] ;
226 -> 227 ;
228 [label="squared_error = 0.0\nsamples = 1\nvalue = 46.0", fillcolor="#f2c29e"] ;
226 -> 228 ;
229 [label="squared_error = 0.0\nsamples = 1\nvalue = 42.0", fillcolor="#f4c8a8"] ;
225 -> 229 ;
230 [label="WIND_DIR <= 246.5\nsquared_error = 9.0\nsamples = 2\nvalue = 37.0", fillcolor="#f5cfb4"] ;
214 -> 230 ;
231 [label="squared_error = 0.0\nsamples = 1\nvalue = 34.0", fillcolor="#f6d4bb"] ;
230 -> 231 ;
232 [label="squared_error = 0.0\nsamples = 1\nvalue = 40.0", fillcolor="#f4caac"] ;
230 -> 232 ;
233 [label="O3 <= 0.026\nsquared_error = 41.0\nsamples = 6\nvalue = 31.0", fillcolor="#f7d8c2"] ;
213 -> 233 ;
234 [label="CLOUD <= 0.185\nsquared_error = 9.0\nsamples = 2\nvalue = 23.0", fillcolor="#f9e4d5"] ;
233 -> 234 ;
235 [label="squared_error = 0.0\nsamples = 1\nvalue = 20.0", fillcolor="#fae8dc"] ;
234 -> 235 ;
236 [label="squared_error = 0.0\nsamples = 1\nvalue = 26.0", fillcolor="#f8e0ce"] ;
234 -> 236 ;
237 [label="PM10_J <= 85.5\nsquared_error = 9.0\nsamples = 4\nvalue = 35.0", fillcolor="#f6d2b8"] ;
233 -> 237 ;
238 [label="squared_error = 0.0\nsamples = 1\nvalue = 40.0", fillcolor="#f4caac"] ;
237 -> 238 ;
239 [label="NO2 <= 0.021\nsquared_error = 0.889\nsamples = 3\nvalue = 33.333", fillcolor="#f6d4bc"] ;
237 -> 239 ;
240 [label="squared_error = 0.0\nsamples = 2\nvalue = 34.0", fillcolor="#f6d4bb"] ;
239 -> 240 ;
241 [label="squared_error = 0.0\nsamples = 1\nvalue = 32.0", fillcolor="#f7d7bf"] ;
239 -> 241 ;
242 [label="TEMP <= 11.065\nsquared_error = 132.25\nsamples = 2\nvalue = 71.5", fillcolor="#ea9b62"] ;
202 -> 242 ;
243 [label="squared_error = 0.0\nsamples = 1\nvalue = 60.0", fillcolor="#eeac7d"] ;
242 -> 243 ;
244 [label="squared_error = 0.0\nsamples = 1\nvalue = 83.0", fillcolor="#e78a47"] ;
242 -> 244 ;
245 [label="CO <= 0.35\nsquared_error = 70.405\nsamples = 35\nvalue = 17.371", fillcolor="#fbece2"] ;
1 -> 245 ;
246 [label="SO2 <= 0.003\nsquared_error = 12.472\nsamples = 6\nvalue = 8.833", fillcolor="#fef9f6"] ;
245 -> 246 ;
247 [label="PM10_B <= 43.0\nsquared_error = 2.5\nsamples = 4\nvalue = 7.0", fillcolor="#fefcfa"] ;
246 -> 247 ;
248 [label="WIND <= 2.65\nsquared_error = 0.25\nsamples = 2\nvalue = 5.5", fillcolor="#fffefe"] ;
247 -> 248 ;
249 [label="squared_error = 0.0\nsamples = 1\nvalue = 5.0", fillcolor="#ffffff"] ;
248 -> 249 ;
250 [label="squared_error = 0.0\nsamples = 1\nvalue = 6.0", fillcolor="#fffefd"] ;
248 -> 250 ;
251 [label="season <= 2.5\nsquared_error = 0.25\nsamples = 2\nvalue = 8.5", fillcolor="#fefaf7"] ;
247 -> 251 ;
252 [label="squared_error = 0.0\nsamples = 1\nvalue = 9.0", fillcolor="#fef9f6"] ;
251 -> 252 ;
253 [label="squared_error = 0.0\nsamples = 1\nvalue = 8.0", fillcolor="#fefaf8"] ;
251 -> 253 ;
254 [label="TEMP <= 26.785\nsquared_error = 12.25\nsamples = 2\nvalue = 12.5", fillcolor="#fdf4ed"] ;
246 -> 254 ;
255 [label="squared_error = 0.0\nsamples = 1\nvalue = 16.0", fillcolor="#fceee5"] ;
254 -> 255 ;
256 [label="squared_error = 0.0\nsamples = 1\nvalue = 9.0", fillcolor="#fef9f6"] ;
254 -> 256 ;
257 [label="O3 <= 0.025\nsquared_error = 64.188\nsamples = 29\nvalue = 19.138", fillcolor="#fbeade"] ;
245 -> 257 ;
258 [label="PM10_J <= 137.5\nsquared_error = 35.273\nsamples = 22\nvalue = 17.0", fillcolor="#fbede3"] ;
257 -> 258 ;
259 [label="TRAFIC <= 9655160.5\nsquared_error = 26.847\nsamples = 20\nvalue = 16.05", fillcolor="#fceee5"] ;
258 -> 259 ;
260 [label="O3 <= 0.016\nsquared_error = 24.235\nsamples = 17\nvalue = 15.0", fillcolor="#fcf0e7"] ;
259 -> 260 ;
261 [label="CLOUD <= 8.855\nsquared_error = 24.188\nsamples = 8\nvalue = 12.75", fillcolor="#fdf3ed"] ;
260 -> 261 ;
262 [label="O3 <= 0.012\nsquared_error = 2.25\nsamples = 2\nvalue = 20.5", fillcolor="#fae8da"] ;
261 -> 262 ;
263 [label="squared_error = 0.0\nsamples = 1\nvalue = 22.0", fillcolor="#fae6d7"] ;
262 -> 263 ;
264 [label="squared_error = 0.0\nsamples = 1\nvalue = 19.0", fillcolor="#fbeade"] ;
262 -> 264 ;
265 [label="PM10_T <= 75.0\nsquared_error = 4.806\nsamples = 6\nvalue = 10.167", fillcolor="#fdf7f3"] ;
261 -> 265 ;
266 [label="HUMIDITY <= 88.9\nsquared_error = 0.688\nsamples = 4\nvalue = 8.75", fillcolor="#fef9f6"] ;
265 -> 266 ;
267 [label="squared_error = 0.0\nsamples = 2\nvalue = 8.0", fillcolor="#fefaf8"] ;
266 -> 267 ;
268 [label="ATM_PRESS <= 1004.75\nsquared_error = 0.25\nsamples = 2\nvalue = 9.5", fillcolor="#fef8f4"] ;
266 -> 268 ;
269 [label="squared_error = 0.0\nsamples = 1\nvalue = 9.0", fillcolor="#fef9f6"] ;
268 -> 269 ;
270 [label="squared_error = 0.0\nsamples = 1\nvalue = 10.0", fillcolor="#fdf7f3"] ;
268 -> 270 ;
271 [label="ATM_PRESS <= 998.45\nsquared_error = 1.0\nsamples = 2\nvalue = 13.0", fillcolor="#fdf3ec"] ;
265 -> 271 ;
272 [label="squared_error = 0.0\nsamples = 1\nvalue = 12.0", fillcolor="#fdf4ee"] ;
271 -> 272 ;
273 [label="squared_error = 0.0\nsamples = 1\nvalue = 14.0", fillcolor="#fcf2ea"] ;
271 -> 273 ;
274 [label="WIND_DIR <= 183.0\nsquared_error = 15.778\nsamples = 9\nvalue = 17.0", fillcolor="#fbede3"] ;
260 -> 274 ;
275 [label="WIND_DIR <= 94.5\nsquared_error = 11.333\nsamples = 6\nvalue = 15.0", fillcolor="#fcf0e7"] ;
274 -> 275 ;
276 [label="squared_error = 0.0\nsamples = 1\nvalue = 22.0", fillcolor="#fae6d7"] ;
275 -> 276 ;
277 [label="O3 <= 0.019\nsquared_error = 1.84\nsamples = 5\nvalue = 13.6", fillcolor="#fcf2eb"] ;
275 -> 277 ;
278 [label="squared_error = 0.0\nsamples = 1\nvalue = 16.0", fillcolor="#fceee5"] ;
277 -> 278 ;
279 [label="WIND_DIR <= 104.0\nsquared_error = 0.5\nsamples = 4\nvalue = 13.0", fillcolor="#fdf3ec"] ;
277 -> 279 ;
280 [label="squared_error = 0.0\nsamples = 1\nvalue = 12.0", fillcolor="#fdf4ee"] ;
279 -> 280 ;
281 [label="HUMIDITY <= 92.2\nsquared_error = 0.222\nsamples = 3\nvalue = 13.333", fillcolor="#fcf2eb"] ;
279 -> 281 ;
282 [label="squared_error = 0.0\nsamples = 2\nvalue = 13.0", fillcolor="#fdf3ec"] ;
281 -> 282 ;
283 [label="squared_error = 0.0\nsamples = 1\nvalue = 14.0", fillcolor="#fcf2ea"] ;
281 -> 283 ;
284 [label="TEMP <= 25.465\nsquared_error = 0.667\nsamples = 3\nvalue = 21.0", fillcolor="#fae7d9"] ;
274 -> 284 ;
285 [label="season <= 1.5\nsquared_error = 0.25\nsamples = 2\nvalue = 21.5", fillcolor="#fae6d8"] ;
284 -> 285 ;
286 [label="squared_error = 0.0\nsamples = 1\nvalue = 21.0", fillcolor="#fae7d9"] ;
285 -> 286 ;
287 [label="squared_error = 0.0\nsamples = 1\nvalue = 22.0", fillcolor="#fae6d7"] ;
285 -> 287 ;
288 [label="squared_error = 0.0\nsamples = 1\nvalue = 20.0", fillcolor="#fae8dc"] ;
284 -> 288 ;
289 [label="squared_error = 0.0\nsamples = 3\nvalue = 22.0", fillcolor="#fae6d7"] ;
259 -> 289 ;
290 [label="PM10_T <= 75.5\nsquared_error = 20.25\nsamples = 2\nvalue = 26.5", fillcolor="#f8dfcc"] ;
258 -> 290 ;
291 [label="squared_error = 0.0\nsamples = 1\nvalue = 31.0", fillcolor="#f7d8c2"] ;
290 -> 291 ;
292 [label="squared_error = 0.0\nsamples = 1\nvalue = 22.0", fillcolor="#fae6d7"] ;
290 -> 292 ;
293 [label="CLOUD <= 8.355\nsquared_error = 95.551\nsamples = 7\nvalue = 25.857", fillcolor="#f9e0ce"] ;
257 -> 293 ;
294 [label="squared_error = 0.0\nsamples = 1\nvalue = 7.0", fillcolor="#fefcfa"] ;
293 -> 294 ;
295 [label="HUMIDITY <= 81.4\nsquared_error = 42.333\nsamples = 6\nvalue = 29.0", fillcolor="#f8dbc6"] ;
293 -> 295 ;
296 [label="WIND <= 2.31\nsquared_error = 10.889\nsamples = 3\nvalue = 34.667", fillcolor="#f6d2b9"] ;
295 -> 296 ;
297 [label="WIND <= 1.82\nsquared_error = 2.25\nsamples = 2\nvalue = 32.5", fillcolor="#f6d6be"] ;
296 -> 297 ;
298 [label="squared_error = 0.0\nsamples = 1\nvalue = 31.0", fillcolor="#f7d8c2"] ;
297 -> 298 ;
299 [label="squared_error = 0.0\nsamples = 1\nvalue = 34.0", fillcolor="#f6d4bb"] ;
297 -> 299 ;
300 [label="squared_error = 0.0\nsamples = 1\nvalue = 39.0", fillcolor="#f4ccaf"] ;
296 -> 300 ;
301 [label="WIND_DIR <= 238.0\nsquared_error = 9.556\nsamples = 3\nvalue = 23.333", fillcolor="#f9e4d4"] ;
295 -> 301 ;
302 [label="squared_error = 0.0\nsamples = 1\nvalue = 19.0", fillcolor="#fbeade"] ;
301 -> 302 ;
303 [label="season <= 0.5\nsquared_error = 0.25\nsamples = 2\nvalue = 25.5", fillcolor="#f9e0cf"] ;
301 -> 303 ;
304 [label="squared_error = 0.0\nsamples = 1\nvalue = 25.0", fillcolor="#f9e1d0"] ;
303 -> 304 ;
305 [label="squared_error = 0.0\nsamples = 1\nvalue = 26.0", fillcolor="#f8e0ce"] ;
303 -> 305 ;
306 [label="WIND_DIR <= 183.5\nsquared_error = 225.082\nsamples = 72\nvalue = 45.542", fillcolor="#f2c29f"] ;
0 -> 306 [labeldistance=2.5, labelangle=-45, headlabel="False"] ;
307 [label="NO2 <= 0.049\nsquared_error = 156.743\nsamples = 36\nvalue = 40.083", fillcolor="#f4caac"] ;
306 -> 307 ;
308 [label="season <= 2.5\nsquared_error = 129.375\nsamples = 32\nvalue = 38.0", fillcolor="#f5ceb1"] ;
307 -> 308 ;
309 [label="PM10_B <= 75.5\nsquared_error = 135.25\nsamples = 22\nvalue = 41.5", fillcolor="#f4c8a9"] ;
308 -> 309 ;
310 [label="TRAFIC <= 8439117.5\nsquared_error = 64.907\nsamples = 15\nvalue = 36.4", fillcolor="#f5d0b5"] ;
309 -> 310 ;
311 [label="CLOUD <= 6.625\nsquared_error = 51.44\nsamples = 5\nvalue = 43.4", fillcolor="#f3c5a4"] ;
310 -> 311 ;
312 [label="ATM_PRESS <= 1010.55\nsquared_error = 0.25\nsamples = 2\nvalue = 51.5", fillcolor="#f1b991"] ;
311 -> 312 ;
313 [label="squared_error = 0.0\nsamples = 1\nvalue = 52.0", fillcolor="#f0b890"] ;
312 -> 313 ;
314 [label="squared_error = 0.0\nsamples = 1\nvalue = 51.0", fillcolor="#f1ba93"] ;
312 -> 314 ;
315 [label="TEMP <= 5.4\nsquared_error = 12.667\nsamples = 3\nvalue = 38.0", fillcolor="#f5ceb1"] ;
311 -> 315 ;
316 [label="ATM_PRESS <= 1016.65\nsquared_error = 0.25\nsamples = 2\nvalue = 35.5", fillcolor="#f6d1b7"] ;
315 -> 316 ;
317 [label="squared_error = 0.0\nsamples = 1\nvalue = 36.0", fillcolor="#f5d0b6"] ;
316 -> 317 ;
318 [label="squared_error = 0.0\nsamples = 1\nvalue = 35.0", fillcolor="#f6d2b8"] ;
316 -> 318 ;
319 [label="squared_error = 0.0\nsamples = 1\nvalue = 43.0", fillcolor="#f3c6a5"] ;
315 -> 319 ;
320 [label="TEMP <= 4.575\nsquared_error = 34.89\nsamples = 10\nvalue = 32.9", fillcolor="#f6d5bd"] ;
310 -> 320 ;
321 [label="ATM_PRESS <= 1016.7\nsquared_error = 24.56\nsamples = 5\nvalue = 28.8", fillcolor="#f8dbc7"] ;
320 -> 321 ;
322 [label="PM10_B <= 45.0\nsquared_error = 0.667\nsamples = 3\nvalue = 25.0", fillcolor="#f9e1d0"] ;
321 -> 322 ;
323 [label="squared_error = 0.0\nsamples = 1\nvalue = 26.0", fillcolor="#f8e0ce"] ;
322 -> 323 ;
324 [label="RAIN_WEIGHT <= 0.44\nsquared_error = 0.25\nsamples = 2\nvalue = 24.5", fillcolor="#f9e2d1"] ;
322 -> 324 ;
325 [label="squared_error = 0.0\nsamples = 1\nvalue = 25.0", fillcolor="#f9e1d0"] ;
324 -> 325 ;
326 [label="squared_error = 0.0\nsamples = 1\nvalue = 24.0", fillcolor="#f9e2d2"] ;
324 -> 326 ;
327 [label="TRAFIC <= 9824342.5\nsquared_error = 6.25\nsamples = 2\nvalue = 34.5", fillcolor="#f6d3b9"] ;
321 -> 327 ;
328 [label="squared_error = 0.0\nsamples = 1\nvalue = 37.0", fillcolor="#f5cfb4"] ;
327 -> 328 ;
329 [label="squared_error = 0.0\nsamples = 1\nvalue = 32.0", fillcolor="#f7d7bf"] ;
327 -> 329 ;
330 [label="TEMP <= 4.81\nsquared_error = 11.6\nsamples = 5\nvalue = 37.0", fillcolor="#f5cfb4"] ;
320 -> 330 ;
331 [label="squared_error = 0.0\nsamples = 1\nvalue = 43.0", fillcolor="#f3c6a5"] ;
330 -> 331 ;
332 [label="season <= 1.0\nsquared_error = 3.25\nsamples = 4\nvalue = 35.5", fillcolor="#f6d1b7"] ;
330 -> 332 ;
333 [label="WIND_DIR <= 65.0\nsquared_error = 1.0\nsamples = 2\nvalue = 34.0", fillcolor="#f6d4bb"] ;
332 -> 333 ;
334 [label="squared_error = 0.0\nsamples = 1\nvalue = 35.0", fillcolor="#f6d2b8"] ;
333 -> 334 ;
335 [label="squared_error = 0.0\nsamples = 1\nvalue = 33.0", fillcolor="#f6d5bd"] ;
333 -> 335 ;
336 [label="O3 <= 0.029\nsquared_error = 1.0\nsamples = 2\nvalue = 37.0", fillcolor="#f5cfb4"] ;
332 -> 336 ;
337 [label="squared_error = 0.0\nsamples = 1\nvalue = 36.0", fillcolor="#f5d0b6"] ;
336 -> 337 ;
338 [label="squared_error = 0.0\nsamples = 1\nvalue = 38.0", fillcolor="#f5ceb1"] ;
336 -> 338 ;
339 [label="HUMIDITY <= 61.9\nsquared_error = 110.816\nsamples = 7\nvalue = 52.429", fillcolor="#f0b88f"] ;
309 -> 339 ;
340 [label="PM10_B <= 98.0\nsquared_error = 34.889\nsamples = 3\nvalue = 41.333", fillcolor="#f4c8a9"] ;
339 -> 340 ;
341 [label="squared_error = 0.0\nsamples = 1\nvalue = 33.0", fillcolor="#f6d5bd"] ;
340 -> 341 ;
342 [label="RAIN_WEIGHT <= 0.1\nsquared_error = 0.25\nsamples = 2\nvalue = 45.5", fillcolor="#f2c2a0"] ;
340 -> 342 ;
343 [label="squared_error = 0.0\nsamples = 1\nvalue = 46.0", fillcolor="#f2c29e"] ;
342 -> 343 ;
344 [label="squared_error = 0.0\nsamples = 1\nvalue = 45.0", fillcolor="#f3c3a1"] ;
342 -> 344 ;
345 [label="PM10_B <= 87.5\nsquared_error = 6.188\nsamples = 4\nvalue = 60.75", fillcolor="#eeab7c"] ;
339 -> 345 ;
346 [label="WIND_DIR <= 112.5\nsquared_error = 0.222\nsamples = 3\nvalue = 59.333", fillcolor="#eeae7f"] ;
345 -> 346 ;
347 [label="squared_error = 0.0\nsamples = 1\nvalue = 60.0", fillcolor="#eeac7d"] ;
346 -> 347 ;
348 [label="squared_error = 0.0\nsamples = 2\nvalue = 59.0", fillcolor="#eeae80"] ;
346 -> 348 ;
349 [label="squared_error = 0.0\nsamples = 1\nvalue = 65.0", fillcolor="#eca572"] ;
345 -> 349 ;
350 [label="HUMIDITY <= 60.95\nsquared_error = 30.21\nsamples = 10\nvalue = 30.3", fillcolor="#f7d9c3"] ;
308 -> 350 ;
351 [label="SO2 <= 0.005\nsquared_error = 17.188\nsamples = 4\nvalue = 35.25", fillcolor="#f6d2b8"] ;
350 -> 351 ;
352 [label="WIND <= 1.715\nsquared_error = 2.667\nsamples = 3\nvalue = 33.0", fillcolor="#f6d5bd"] ;
351 -> 352 ;
353 [label="squared_error = 0.0\nsamples = 1\nvalue = 35.0", fillcolor="#f6d2b8"] ;
352 -> 353 ;
354 [label="TEMP <= 7.775\nsquared_error = 1.0\nsamples = 2\nvalue = 32.0", fillcolor="#f7d7bf"] ;
352 -> 354 ;
355 [label="squared_error = 0.0\nsamples = 1\nvalue = 33.0", fillcolor="#f6d5bd"] ;
354 -> 355 ;
356 [label="squared_error = 0.0\nsamples = 1\nvalue = 31.0", fillcolor="#f7d8c2"] ;
354 -> 356 ;
357 [label="squared_error = 0.0\nsamples = 1\nvalue = 42.0", fillcolor="#f4c8a8"] ;
351 -> 357 ;
358 [label="TEMP <= 7.07\nsquared_error = 11.667\nsamples = 6\nvalue = 27.0", fillcolor="#f8decb"] ;
350 -> 358 ;
359 [label="CO <= 0.65\nsquared_error = 0.25\nsamples = 2\nvalue = 22.5", fillcolor="#fae5d6"] ;
358 -> 359 ;
360 [label="squared_error = 0.0\nsamples = 1\nvalue = 22.0", fillcolor="#fae6d7"] ;
359 -> 360 ;
361 [label="squared_error = 0.0\nsamples = 1\nvalue = 23.0", fillcolor="#f9e4d5"] ;
359 -> 361 ;
362 [label="WIND_DIR <= 107.0\nsquared_error = 2.188\nsamples = 4\nvalue = 29.25", fillcolor="#f7dbc6"] ;
358 -> 362 ;
363 [label="squared_error = 0.0\nsamples = 1\nvalue = 27.0", fillcolor="#f8decb"] ;
362 -> 363 ;
364 [label="RAIN_WEIGHT <= 1.465\nsquared_error = 0.667\nsamples = 3\nvalue = 30.0", fillcolor="#f7d9c4"] ;
362 -> 364 ;
365 [label="PM10_B <= 116.0\nsquared_error = 0.25\nsamples = 2\nvalue = 29.5", fillcolor="#f7dac5"] ;
364 -> 365 ;
366 [label="squared_error = 0.0\nsamples = 1\nvalue = 30.0", fillcolor="#f7d9c4"] ;
365 -> 366 ;
367 [label="squared_error = 0.0\nsamples = 1\nvalue = 29.0", fillcolor="#f8dbc6"] ;
365 -> 367 ;
368 [label="squared_error = 0.0\nsamples = 1\nvalue = 31.0", fillcolor="#f7d8c2"] ;
364 -> 368 ;
369 [label="PM10_J <= 178.0\nsquared_error = 63.188\nsamples = 4\nvalue = 56.75", fillcolor="#efb185"] ;
307 -> 369 ;
370 [label="TEMP <= 1.91\nsquared_error = 12.25\nsamples = 2\nvalue = 49.5", fillcolor="#f1bc96"] ;
369 -> 370 ;
371 [label="squared_error = 0.0\nsamples = 1\nvalue = 46.0", fillcolor="#f2c29e"] ;
370 -> 371 ;
372 [label="squared_error = 0.0\nsamples = 1\nvalue = 53.0", fillcolor="#f0b78e"] ;
370 -> 372 ;
373 [label="HUMIDITY <= 56.9\nsquared_error = 9.0\nsamples = 2\nvalue = 64.0", fillcolor="#eda674"] ;
369 -> 373 ;
374 [label="squared_error = 0.0\nsamples = 1\nvalue = 61.0", fillcolor="#eeab7b"] ;
373 -> 374 ;
375 [label="squared_error = 0.0\nsamples = 1\nvalue = 67.0", fillcolor="#eca26d"] ;
373 -> 375 ;
376 [label="O3 <= 0.014\nsquared_error = 233.833\nsamples = 36\nvalue = 51.0", fillcolor="#f1ba93"] ;
306 -> 376 ;
377 [label="CO <= 0.75\nsquared_error = 132.698\nsamples = 13\nvalue = 41.385", fillcolor="#f4c8a9"] ;
376 -> 377 ;
378 [label="PM10_T <= 61.0\nsquared_error = 28.41\nsamples = 10\nvalue = 35.7", fillcolor="#f5d1b7"] ;
377 -> 378 ;
379 [label="TEMP <= 5.9\nsquared_error = 11.44\nsamples = 5\nvalue = 31.6", fillcolor="#f7d7c0"] ;
378 -> 379 ;
380 [label="O3 <= 0.013\nsquared_error = 6.889\nsamples = 3\nvalue = 33.667", fillcolor="#f6d4bb"] ;
379 -> 380 ;
381 [label="PM10_B <= 52.0\nsquared_error = 0.25\nsamples = 2\nvalue = 35.5", fillcolor="#f6d1b7"] ;
380 -> 381 ;
382 [label="squared_error = 0.0\nsamples = 1\nvalue = 35.0", fillcolor="#f6d2b8"] ;
381 -> 382 ;
383 [label="squared_error = 0.0\nsamples = 1\nvalue = 36.0", fillcolor="#f5d0b6"] ;
381 -> 383 ;
384 [label="squared_error = 0.0\nsamples = 1\nvalue = 30.0", fillcolor="#f7d9c4"] ;
380 -> 384 ;
385 [label="WIND <= 2.01\nsquared_error = 2.25\nsamples = 2\nvalue = 28.5", fillcolor="#f8dcc8"] ;
379 -> 385 ;
386 [label="squared_error = 0.0\nsamples = 1\nvalue = 27.0", fillcolor="#f8decb"] ;
385 -> 386 ;
387 [label="squared_error = 0.0\nsamples = 1\nvalue = 30.0", fillcolor="#f7d9c4"] ;
385 -> 387 ;
388 [label="WIND_DIR <= 194.5\nsquared_error = 11.76\nsamples = 5\nvalue = 39.8", fillcolor="#f4cbad"] ;
378 -> 388 ;
389 [label="ATM_PRESS <= 1012.8\nsquared_error = 2.25\nsamples = 2\nvalue = 43.5", fillcolor="#f3c5a4"] ;
388 -> 389 ;
390 [label="squared_error = 0.0\nsamples = 1\nvalue = 45.0", fillcolor="#f3c3a1"] ;
389 -> 390 ;
391 [label="squared_error = 0.0\nsamples = 1\nvalue = 42.0", fillcolor="#f4c8a8"] ;
389 -> 391 ;
392 [label="TEMP <= 6.395\nsquared_error = 2.889\nsamples = 3\nvalue = 37.333", fillcolor="#f5ceb3"] ;
388 -> 392 ;
393 [label="TRAFIC <= 10064016.5\nsquared_error = 0.25\nsamples = 2\nvalue = 38.5", fillcolor="#f5cdb0"] ;
392 -> 393 ;
394 [label="squared_error = 0.0\nsamples = 1\nvalue = 38.0", fillcolor="#f5ceb1"] ;
393 -> 394 ;
395 [label="squared_error = 0.0\nsamples = 1\nvalue = 39.0", fillcolor="#f4ccaf"] ;
393 -> 395 ;
396 [label="squared_error = 0.0\nsamples = 1\nvalue = 35.0", fillcolor="#f6d2b8"] ;
392 -> 396 ;
397 [label="ATM_PRESS <= 1014.7\nsquared_error = 13.556\nsamples = 3\nvalue = 60.333", fillcolor="#eeac7d"] ;
377 -> 397 ;
398 [label="PM10_T <= 206.0\nsquared_error = 4.0\nsamples = 2\nvalue = 58.0", fillcolor="#efb082"] ;
397 -> 398 ;
399 [label="squared_error = 0.0\nsamples = 1\nvalue = 56.0", fillcolor="#efb287"] ;
398 -> 399 ;
400 [label="squared_error = 0.0\nsamples = 1\nvalue = 60.0", fillcolor="#eeac7d"] ;
398 -> 400 ;
401 [label="squared_error = 0.0\nsamples = 1\nvalue = 65.0", fillcolor="#eca572"] ;
397 -> 401 ;
402 [label="TRAFIC <= 10008076.0\nsquared_error = 209.202\nsamples = 23\nvalue = 56.435", fillcolor="#efb286"] ;
376 -> 402 ;
403 [label="TRAFIC <= 9100516.5\nsquared_error = 148.889\nsamples = 18\nvalue = 52.0", fillcolor="#f0b890"] ;
402 -> 403 ;
404 [label="ATM_PRESS <= 1010.65\nsquared_error = 84.333\nsamples = 6\nvalue = 62.0", fillcolor="#edaa79"] ;
403 -> 404 ;
405 [label="NO2 <= 0.026\nsquared_error = 12.25\nsamples = 2\nvalue = 49.5", fillcolor="#f1bc96"] ;
404 -> 405 ;
406 [label="squared_error = 0.0\nsamples = 1\nvalue = 46.0", fillcolor="#f2c29e"] ;
405 -> 406 ;
407 [label="squared_error = 0.0\nsamples = 1\nvalue = 53.0", fillcolor="#f0b78e"] ;
405 -> 407 ;
408 [label="ATM_PRESS <= 1016.95\nsquared_error = 3.188\nsamples = 4\nvalue = 68.25", fillcolor="#eba06a"] ;
404 -> 408 ;
409 [label="CLOUD <= 4.48\nsquared_error = 0.889\nsamples = 3\nvalue = 67.333", fillcolor="#eca26c"] ;
408 -> 409 ;
410 [label="squared_error = 0.0\nsamples = 1\nvalue = 66.0", fillcolor="#eca46f"] ;
409 -> 410 ;
411 [label="squared_error = 0.0\nsamples = 2\nvalue = 68.0", fillcolor="#eca06a"] ;
409 -> 411 ;
412 [label="squared_error = 0.0\nsamples = 1\nvalue = 71.0", fillcolor="#eb9c63"] ;
408 -> 412 ;
413 [label="TEMP <= 25.72\nsquared_error = 106.167\nsamples = 12\nvalue = 47.0", fillcolor="#f2c09c"] ;
403 -> 413 ;
414 [label="NO2 <= 0.043\nsquared_error = 63.355\nsamples = 11\nvalue = 44.909", fillcolor="#f3c3a1"] ;
413 -> 414 ;
415 [label="CLOUD <= 1.835\nsquared_error = 28.889\nsamples = 9\nvalue = 47.667", fillcolor="#f2bf9a"] ;
414 -> 415 ;
416 [label="WIND_DIR <= 245.0\nsquared_error = 12.25\nsamples = 2\nvalue = 39.5", fillcolor="#f4cbae"] ;
415 -> 416 ;
417 [label="squared_error = 0.0\nsamples = 1\nvalue = 43.0", fillcolor="#f3c6a5"] ;
416 -> 417 ;
418 [label="squared_error = 0.0\nsamples = 1\nvalue = 36.0", fillcolor="#f5d0b6"] ;
416 -> 418 ;
419 [label="CLOUD <= 7.105\nsquared_error = 9.143\nsamples = 7\nvalue = 50.0", fillcolor="#f1bc95"] ;
415 -> 419 ;
420 [label="TRAFIC <= 9835690.0\nsquared_error = 1.36\nsamples = 5\nvalue = 51.8", fillcolor="#f1b991"] ;
419 -> 420 ;
421 [label="season <= 1.5\nsquared_error = 0.222\nsamples = 3\nvalue = 52.667", fillcolor="#f0b88f"] ;
420 -> 421 ;
422 [label="squared_error = 0.0\nsamples = 2\nvalue = 53.0", fillcolor="#f0b78e"] ;
421 -> 422 ;
423 [label="squared_error = 0.0\nsamples = 1\nvalue = 52.0", fillcolor="#f0b890"] ;
421 -> 423 ;
424 [label="ATM_PRESS <= 1012.0\nsquared_error = 0.25\nsamples = 2\nvalue = 50.5", fillcolor="#f1bb94"] ;
420 -> 424 ;
425 [label="squared_error = 0.0\nsamples = 1\nvalue = 51.0", fillcolor="#f1ba93"] ;
424 -> 425 ;
426 [label="squared_error = 0.0\nsamples = 1\nvalue = 50.0", fillcolor="#f1bc95"] ;
424 -> 426 ;
427 [label="TRAFIC <= 9766289.0\nsquared_error = 0.25\nsamples = 2\nvalue = 45.5", fillcolor="#f2c2a0"] ;
419 -> 427 ;
428 [label="squared_error = 0.0\nsamples = 1\nvalue = 46.0", fillcolor="#f2c29e"] ;
427 -> 428 ;
429 [label="squared_error = 0.0\nsamples = 1\nvalue = 45.0", fillcolor="#f3c3a1"] ;
427 -> 429 ;
430 [label="SO2 <= 0.004\nsquared_error = 30.25\nsamples = 2\nvalue = 32.5", fillcolor="#f6d6be"] ;
414 -> 430 ;
431 [label="squared_error = 0.0\nsamples = 1\nvalue = 38.0", fillcolor="#f5ceb1"] ;
430 -> 431 ;
432 [label="squared_error = 0.0\nsamples = 1\nvalue = 27.0", fillcolor="#f8decb"] ;
430 -> 432 ;
433 [label="squared_error = 0.0\nsamples = 1\nvalue = 70.0", fillcolor="#eb9e66"] ;
413 -> 433 ;
434 [label="CLOUD <= 3.17\nsquared_error = 100.64\nsamples = 5\nvalue = 72.4", fillcolor="#ea9a60"] ;
402 -> 434 ;
435 [label="squared_error = 0.0\nsamples = 1\nvalue = 89.0", fillcolor="#e58139"] ;
434 -> 435 ;
436 [label="HUMIDITY <= 56.05\nsquared_error = 39.688\nsamples = 4\nvalue = 68.25", fillcolor="#eba06a"] ;
434 -> 436 ;
437 [label="squared_error = 0.0\nsamples = 1\nvalue = 59.0", fillcolor="#eeae80"] ;
436 -> 437 ;
438 [label="WIND <= 1.43\nsquared_error = 14.889\nsamples = 3\nvalue = 71.333", fillcolor="#ea9c63"] ;
436 -> 438 ;
439 [label="squared_error = 0.0\nsamples = 1\nvalue = 66.0", fillcolor="#eca46f"] ;
438 -> 439 ;
440 [label="TRAFIC <= 10108704.0\nsquared_error = 1.0\nsamples = 2\nvalue = 74.0", fillcolor="#ea985c"] ;
438 -> 440 ;
441 [label="squared_error = 0.0\nsamples = 1\nvalue = 75.0", fillcolor="#e9965a"] ;
440 -> 441 ;
442 [label="squared_error = 0.0\nsamples = 1\nvalue = 73.0", fillcolor="#ea995f"] ;
440 -> 442 ;
}